booster[0]:
0:[f23720<0.0745639] yes=1,no=2,missing=1
	1:[f3914<0.221598] yes=3,no=4,missing=3
		3:[f22792<0.179595] yes=7,no=8,missing=7
			7:[f13266<0.0700384] yes=13,no=14,missing=14
				13:leaf=0.0277417
				14:leaf=-0.038974
			8:leaf=0.102884
		4:leaf=0.162545
	2:[f21350<0.68745] yes=5,no=6,missing=6
		5:[f6211<0.440455] yes=9,no=10,missing=10
			9:leaf=-0.03246
			10:leaf=0.0520879
		6:[f3935<0.144384] yes=11,no=12,missing=12
			11:leaf=0.0154959
			12:[f9008<0.0230486] yes=15,no=16,missing=16
				15:leaf=0.0810373
				16:leaf=0.209301
booster[1]:
0:[f8032<1.0784] yes=1,no=2,missing=2
	1:[f1581<0.0480595] yes=3,no=4,missing=3
		3:leaf=-0.0403176
		4:leaf=0.0157274
	2:[f5386<0.18023] yes=5,no=6,missing=6
		5:[f8701<0.0261765] yes=7,no=8,missing=7
			7:leaf=0.0127635
			8:leaf=0.133271
		6:[f379<0.0102797] yes=9,no=10,missing=9
			9:[f23720<0.0115112] yes=11,no=12,missing=11
				11:leaf=0.00761672
				12:leaf=-0.036386
			10:[f6218<0.0363857] yes=13,no=14,missing=13
				13:leaf=-0.0381483
				14:leaf=0.037343
booster[2]:
0:[f19123<0.0140913] yes=1,no=2,missing=1
	1:[f18931<0.0248472] yes=3,no=4,missing=3
		3:[f1566<0.0738928] yes=7,no=8,missing=7
			7:[f8550<0.223958] yes=15,no=16,missing=15
				15:leaf=-0.0359964
				16:leaf=0.0591901
			8:leaf=0.0810373
		4:[f8676<0.00932643] yes=9,no=10,missing=9
			9:leaf=0.173863
			10:leaf=0.0520879
	2:[f379<0.00924438] yes=5,no=6,missing=5
		5:[f23720<0.0828802] yes=11,no=12,missing=11
			11:[f8676<0.0187595] yes=17,no=18,missing=17
				17:leaf=0.196092
				18:leaf=0.0831428
			12:leaf=-0.0061328
		6:leaf=-0.0202749
booster[3]:
0:[f4770<0.048926] yes=1,no=2,missing=1
	1:[f20137<0.0507025] yes=3,no=4,missing=3
		3:[f7455<0.238328] yes=7,no=8,missing=7
			7:[f19851<0.150229] yes=9,no=10,missing=10
				9:leaf=0.102884
				10:leaf=-0.0317284
			8:[f13258<0.534347] yes=11,no=12,missing=12
				11:leaf=-0.00859675
				12:leaf=0.133271
		4:leaf=0.112975
	2:[f3721<0.44304] yes=5,no=6,missing=6
		5:leaf=0.037343
		6:leaf=0.18622
booster[4]:
0:[f8676<0.0403649] yes=1,no=2,missing=1
	1:[f19534<0.103513] yes=3,no=4,missing=3
		3:[f5241<0.0372841] yes=7,no=8,missing=7
			7:[f23702<0.0429198] yes=13,no=14,missing=13
				13:leaf=-0.0227669
				14:leaf=0.0876544
			8:leaf=0.124732
		4:leaf=0.133271
	2:[f13178<0.685937] yes=5,no=6,missing=6
		5:[f18914<0.046895] yes=9,no=10,missing=10
			9:leaf=0.00802679
			10:[f9930<0.0406662] yes=15,no=16,missing=16
				15:leaf=0.0648776
				16:leaf=0.198613
		6:[f23720<0.0336183] yes=11,no=12,missing=11
			11:[f3815<0.527649] yes=17,no=18,missing=18
				17:leaf=-0.0352434
				18:leaf=0.0797407
			12:leaf=-0.0364176
booster[5]:
0:[f12273<0.0320748] yes=1,no=2,missing=1
	1:[f4891<0.0540298] yes=3,no=4,missing=3
		3:[f1358<0.0146437] yes=7,no=8,missing=7
			7:[f3815<0.0365443] yes=15,no=16,missing=15
				15:leaf=-0.011244
				16:leaf=0.102697
			8:[f7455<0.0261915] yes=17,no=18,missing=17
				17:leaf=0.0268962
				18:leaf=0.134132
		4:[f3827<0.0578333] yes=9,no=10,missing=9
			9:[f5612<0.154088] yes=19,no=20,missing=19
				19:leaf=-0.0397014
				20:leaf=-0.0061328
			10:leaf=-0.0061328
	2:[f2019<0.547875] yes=5,no=6,missing=6
		5:[f4891<0.347965] yes=11,no=12,missing=12
			11:leaf=0.0838279
			12:leaf=0.211245
		6:[f18804<0.26732] yes=13,no=14,missing=14
			13:[f5726<0.102112] yes=21,no=22,missing=22
				21:leaf=0.031792
				22:leaf=0.168426
			14:[f8676<0.0419263] yes=23,no=24,missing=23
				23:leaf=-0.0182276
				24:leaf=0.0810373
booster[6]:
0:[f4891<0.0691866] yes=1,no=2,missing=1
	1:[f1781<0.0446567] yes=3,no=4,missing=3
		3:[f8032<0.0205061] yes=7,no=8,missing=8
			7:leaf=0.00230658
			8:leaf=-0.0405254
		4:leaf=0.0760769
	2:[f3914<0.185265] yes=5,no=6,missing=5
		5:[f4891<0.112731] yes=9,no=10,missing=10
			9:[f11281<0.0422798] yes=13,no=14,missing=13
				13:leaf=0.137125
				14:leaf=-0.0061328
			10:[f2236<0.0592534] yes=15,no=16,missing=15
				15:leaf=0.223944
				16:leaf=0.0591901
		6:[f461<0.147288] yes=11,no=12,missing=12
			11:leaf=-0.0343861
			12:leaf=0.037343
booster[7]:
0:[f3914<0.193222] yes=1,no=2,missing=1
	1:[f23720<0.08575] yes=3,no=4,missing=3
		3:[f22792<0.179595] yes=7,no=8,missing=7
			7:[f8323<0.0462756] yes=11,no=12,missing=11
				11:leaf=-0.0383204
				12:leaf=0.0389089
			8:leaf=0.0851005
		4:[f1781<0.778052] yes=9,no=10,missing=10
			9:[f2759<0.203199] yes=13,no=14,missing=14
				13:leaf=-0.00394869
				14:leaf=-0.0340015
			10:[f21753<0.185635] yes=15,no=16,missing=16
				15:leaf=0.0388794
				16:leaf=0.148486
	2:[f573<0.0573029] yes=5,no=6,missing=5
		5:leaf=0.0803751
		6:leaf=0.187362
booster[8]:
0:[f15742<0.0698512] yes=1,no=2,missing=1
	1:[f14288<0.0629525] yes=3,no=4,missing=4
		3:leaf=0.0923696
		4:[f16017<0.0365203] yes=5,no=6,missing=5
			5:[f21614<0.0467395] yes=7,no=8,missing=7
				7:leaf=-0.0226364
				8:leaf=0.0653017
			6:leaf=0.0657569
	2:leaf=0.108774
booster[9]:
0:[f7469<0.024685] yes=1,no=2,missing=1
	1:[f4660<0.0544445] yes=3,no=4,missing=3
		3:[f19310<0.0826435] yes=7,no=8,missing=7
			7:[f1971<0.605419] yes=11,no=12,missing=12
				11:leaf=0.0826731
				12:leaf=-0.0367125
			8:leaf=0.125621
		4:leaf=0.150702
	2:[f4891<0.0379029] yes=5,no=6,missing=5
		5:[f8676<0.0367925] yes=9,no=10,missing=9
			9:leaf=0.186069
			10:leaf=0.051258
		6:leaf=-0.0332133
booster[10]:
0:[f4770<0.048926] yes=1,no=2,missing=1
	1:[f7455<0.245205] yes=3,no=4,missing=3
		3:[f13351<1.28848] yes=7,no=8,missing=8
			7:leaf=0.0787668
			8:[f7854<0.197703] yes=11,no=12,missing=12
				11:leaf=0.0874213
				12:leaf=-0.0327664
		4:[f13258<0.534347] yes=9,no=10,missing=10
			9:leaf=0.01193
			10:leaf=0.119842
	2:[f10263<0.123647] yes=5,no=6,missing=6
		5:leaf=0.0228467
		6:leaf=0.17188
booster[11]:
0:[f4891<0.0240409] yes=1,no=2,missing=1
	1:[f8676<0.0322419] yes=3,no=4,missing=3
		3:[f5785<0.0200957] yes=7,no=8,missing=7
			7:[f10441<0.141509] yes=13,no=14,missing=13
				13:leaf=-0.0110786
				14:leaf=0.0849855
			8:[f8676<0.0118583] yes=15,no=16,missing=15
				15:leaf=-0.00375096
				16:leaf=0.129339
		4:[f2019<0.360189] yes=9,no=10,missing=10
			9:[f8676<0.0456108] yes=17,no=18,missing=18
				17:leaf=0.0366585
				18:leaf=-0.0307867
			10:[f10445<0.0348653] yes=19,no=20,missing=19
				19:leaf=0.127172
				20:leaf=-0.00740746
	2:[f7375<0.0560455] yes=5,no=6,missing=5
		5:[f465<0.107088] yes=11,no=12,missing=12
			11:leaf=-0.00536189
			12:leaf=-0.0402873
		6:leaf=0.00895502
booster[12]:
0:[f3803<0.0364646] yes=1,no=2,missing=1
	1:[f379<0.0430621] yes=3,no=4,missing=3
		3:[f8347<0.268887] yes=7,no=8,missing=7
			7:[f18403<0.0335727] yes=13,no=14,missing=13
				13:leaf=-0.0261835
				14:leaf=0.0515462
			8:leaf=0.107322
		4:[f22736<0.236781] yes=9,no=10,missing=10
			9:leaf=-0.0317923
			10:[f10263<0.306489] yes=15,no=16,missing=16
				15:leaf=0.132931
				16:leaf=0.0465224
	2:[f12273<0.493421] yes=5,no=6,missing=6
		5:[f10967<0.0840101] yes=11,no=12,missing=12
			11:leaf=0.0586881
			12:leaf=0.174948
		6:leaf=0.0565077
booster[13]:
0:[f1781<0.0226949] yes=1,no=2,missing=1
	1:[f18922<0.0470665] yes=3,no=4,missing=3
		3:[f11170<0.0573112] yes=7,no=8,missing=7
			7:[f3935<0.036304] yes=13,no=14,missing=13
				13:leaf=-0.0131627
				14:leaf=0.107018
			8:leaf=0.151754
		4:[f12348<0.0380769] yes=9,no=10,missing=10
			9:leaf=0.0402287
			10:[f8676<0.0297014] yes=15,no=16,missing=15
				15:leaf=0.176077
				16:leaf=0.0719391
	2:[f20044<0.0280062] yes=5,no=6,missing=5
		5:[f14423<0.0751723] yes=11,no=12,missing=11
			11:leaf=0.191135
			12:leaf=0.0639194
		6:leaf=0.0371868
booster[14]:
0:[f23720<0.0843629] yes=1,no=2,missing=1
	1:[f3914<0.221598] yes=3,no=4,missing=3
		3:[f22792<0.218977] yes=7,no=8,missing=7
			7:[f14423<0.130959] yes=11,no=12,missing=11
				11:leaf=-0.0376757
				12:leaf=0.0830186
			8:leaf=0.108214
		4:leaf=0.116107
	2:[f23117<0.628738] yes=5,no=6,missing=6
		5:leaf=-0.0326089
		6:[f1781<0.0644743] yes=9,no=10,missing=9
			9:leaf=0.156155
			10:leaf=-0.00483806
booster[15]:
0:[f4891<0.0151359] yes=1,no=2,missing=1
	1:[f379<0.0102797] yes=3,no=4,missing=3
		3:[f8701<0.026122] yes=7,no=8,missing=7
			7:[f22502<0.17248] yes=13,no=14,missing=14
				13:leaf=0.112849
				14:leaf=0.0116524
			8:leaf=0.11423
		4:[f7194<0.0428065] yes=9,no=10,missing=10
			9:leaf=0.039462
			10:[f20963<0.0960671] yes=15,no=16,missing=15
				15:leaf=-0.0376465
				16:leaf=0.0172589
	2:[f18155<0.0907602] yes=5,no=6,missing=5
		5:[f11928<0.0248977] yes=11,no=12,missing=12
			11:[f8676<0.0148314] yes=17,no=18,missing=17
				17:leaf=-0.0329458
				18:leaf=0.0170025
			12:[f9247<0.068988] yes=19,no=20,missing=19
				19:leaf=-0.039407
				20:leaf=-0.00474504
		6:leaf=0.0383158
booster[16]:
0:[f19123<0.0190396] yes=1,no=2,missing=1
	1:[f12193<0.77563] yes=3,no=4,missing=4
		3:leaf=0.13761
		4:[f4660<0.226036] yes=7,no=8,missing=8
			7:leaf=0.0827456
			8:[f8244<0.0732729] yes=13,no=14,missing=13
				13:leaf=-0.0339674
				14:leaf=0.0271383
	2:[f8676<0.0187595] yes=5,no=6,missing=5
		5:[f8916<0.0537347] yes=9,no=10,missing=9
			9:[f10635<0.0263039] yes=15,no=16,missing=15
				15:leaf=0.148105
				16:leaf=0.0392111
			10:leaf=-0.00435019
		6:[f11928<0.146424] yes=11,no=12,missing=12
			11:leaf=-0.0281488
			12:leaf=0.0294957
booster[17]:
0:[f4770<0.0577609] yes=1,no=2,missing=1
	1:[f13351<0.0600902] yes=3,no=4,missing=3
		3:[f7854<0.0757437] yes=7,no=8,missing=7
			7:[f10445<0.174675] yes=13,no=14,missing=13
				13:leaf=-0.0318974
				14:leaf=0.0550641
			8:leaf=0.0978493
		4:[f10445<0.0470365] yes=9,no=10,missing=9
			9:leaf=0.123148
			10:leaf=0.0182068
	2:[f4891<0.0320747] yes=5,no=6,missing=5
		5:leaf=0.139334
		6:leaf=0.0454831
booster[18]:
0:[f22736<0.0414115] yes=1,no=2,missing=1
	1:[f23678<0.0394224] yes=3,no=4,missing=3
		3:[f19534<0.0534034] yes=7,no=8,missing=7
			7:[f15513<0.15449] yes=13,no=14,missing=13
				13:leaf=-0.0152086
				14:leaf=0.127939
			8:leaf=0.106649
		4:leaf=0.13015
	2:[f13178<0.518197] yes=5,no=6,missing=6
		5:leaf=0.153659
		6:[f1670<0.0334924] yes=11,no=12,missing=11
			11:[f1108<0.279857] yes=15,no=16,missing=16
				15:leaf=-0.00561249
				16:leaf=0.0255649
			12:leaf=0.112273
booster[19]:
0:[f8817<0.0139094] yes=1,no=2,missing=1
	1:[f20044<0.0554924] yes=3,no=4,missing=3
		3:[f19650<0.0772776] yes=7,no=8,missing=7
			7:[f4891<0.0540298] yes=13,no=14,missing=13
				13:leaf=-0.010217
				14:leaf=-0.0369286
			8:leaf=0.113661
		4:[f2019<0.0483184] yes=9,no=10,missing=9
			9:[f817<0.0658787] yes=15,no=16,missing=15
				15:leaf=0.007654
				16:leaf=0.109759
			10:leaf=0.123602
	2:[f4891<0.0648014] yes=5,no=6,missing=5
		5:[f2143<0.132499] yes=11,no=12,missing=12
			11:leaf=-0.00501514
			12:[f1670<0.112418] yes=17,no=18,missing=17
				17:leaf=0.160217
				18:leaf=0.0170072
		6:leaf=-0.0319104
booster[20]:
0:[f4891<0.0691866] yes=1,no=2,missing=1
	1:[f1781<0.0446567] yes=3,no=4,missing=3
		3:[f8032<0.0205061] yes=7,no=8,missing=8
			7:leaf=0.0058957
			8:[f17931<0.0794294] yes=13,no=14,missing=13
				13:leaf=-0.0402678
				14:leaf=-0.00467313
		4:leaf=0.0660052
	2:[f3914<0.184513] yes=5,no=6,missing=5
		5:[f14423<0.0965078] yes=9,no=10,missing=9
			9:[f11281<0.0570693] yes=15,no=16,missing=15
				15:leaf=0.157981
				16:leaf=0.0466231
			10:leaf=0.0202203
		6:[f8032<0.0350116] yes=11,no=12,missing=12
			11:leaf=0.0423953
			12:leaf=-0.035612
booster[21]:
0:[f23720<0.076159] yes=1,no=2,missing=1
	1:[f3914<0.221598] yes=3,no=4,missing=3
		3:[f8323<0.0962471] yes=7,no=8,missing=7
			7:[f5220<0.0667818] yes=11,no=12,missing=11
				11:leaf=-0.0373655
				12:leaf=0.0557793
			8:leaf=0.0815283
		4:leaf=0.0976301
	2:[f1781<0.0890341] yes=5,no=6,missing=5
		5:[f379<0.29534] yes=9,no=10,missing=10
			9:leaf=0.0153045
			10:[f5524<0.0336646] yes=13,no=14,missing=13
				13:leaf=0.134343
				14:leaf=0.0484485
		6:leaf=-0.0328756
booster[22]:
0:[f16017<1.29911] yes=1,no=2,missing=2
	1:leaf=0.0799062
	2:[f8032<1.0784] yes=3,no=4,missing=4
		3:[f1581<0.0480595] yes=5,no=6,missing=5
			5:[f16884<0.0481234] yes=9,no=10,missing=9
				9:leaf=-0.0395857
				10:leaf=-0.00340439
			6:leaf=0.011382
		4:[f8676<0.00792091] yes=7,no=8,missing=7
			7:[f16996<0.0730385] yes=11,no=12,missing=12
				11:leaf=0.0991152
				12:leaf=-0.00185095
			8:[f218<0.0577405] yes=13,no=14,missing=13
				13:leaf=-0.0282469
				14:leaf=0.0417377
booster[23]:
0:[f7469<0.0122613] yes=1,no=2,missing=1
	1:[f4660<0.0544445] yes=3,no=4,missing=3
		3:[f9455<0.643842] yes=7,no=8,missing=8
			7:leaf=0.10068
			8:[f21654<0.514791] yes=11,no=12,missing=12
				11:leaf=0.0611526
				12:leaf=-0.033588
		4:leaf=0.125072
	2:[f1670<0.0477452] yes=5,no=6,missing=6
		5:leaf=-0.0114671
		6:[f21350<0.0339294] yes=9,no=10,missing=9
			9:[f12348<0.0654232] yes=13,no=14,missing=14
				13:leaf=0.0549292
				14:leaf=0.13983
			10:leaf=0.0134597
booster[24]:
0:[f19851<0.368728] yes=1,no=2,missing=2
	1:[f8988<0.0430729] yes=3,no=4,missing=4
		3:leaf=0.0379796
		4:leaf=0.144923
	2:[f13193<0.0408281] yes=5,no=6,missing=5
		5:[f13351<0.358453] yes=7,no=8,missing=7
			7:[f1760<0.0797314] yes=9,no=10,missing=9
				9:leaf=-0.0296198
				10:leaf=0.0902185
			8:leaf=0.100485
		6:leaf=0.130414
booster[25]:
0:[f4891<0.0251022] yes=1,no=2,missing=1
	1:[f8676<0.0383136] yes=3,no=4,missing=3
		3:[f5785<0.0200704] yes=7,no=8,missing=7
			7:[f10441<0.141509] yes=13,no=14,missing=13
				13:leaf=-0.00828536
				14:leaf=0.084202
			8:[f8676<0.0118583] yes=15,no=16,missing=15
				15:leaf=-0.012127
				16:leaf=0.101156
		4:[f2019<0.261816] yes=9,no=10,missing=10
			9:leaf=-0.0182626
			10:[f379<0.0149435] yes=17,no=18,missing=17
				17:leaf=0.0486766
				18:leaf=0.135008
	2:[f7375<0.0550299] yes=5,no=6,missing=5
		5:[f19534<0.0378793] yes=11,no=12,missing=11
			11:leaf=-0.0398639
			12:leaf=0.0147619
		6:leaf=0.0181609
booster[26]:
0:[f12273<0.03727] yes=1,no=2,missing=1
	1:[f4891<0.0571679] yes=3,no=4,missing=3
		3:[f10263<0.0362492] yes=7,no=8,missing=7
			7:[f8817<0.0239853] yes=13,no=14,missing=13
				13:leaf=-0.00956726
				14:leaf=0.0670973
			8:[f20963<0.121863] yes=15,no=16,missing=16
				15:leaf=0.0154211
				16:leaf=0.123199
		4:[f10842<0.0494764] yes=9,no=10,missing=9
			9:[f15447<0.0691138] yes=17,no=18,missing=17
				17:leaf=-0.0388461
				18:leaf=-0.00334575
			10:leaf=0.00321254
	2:[f15219<0.0435982] yes=5,no=6,missing=5
		5:[f14942<0.0174977] yes=11,no=12,missing=11
			11:[f11048<0.0361264] yes=19,no=20,missing=19
				19:leaf=0.139256
				20:leaf=0.0349984
			12:leaf=0.0347908
		6:leaf=-0.0113867
booster[27]:
0:[f3935<0.776188] yes=1,no=2,missing=2
	1:[f6830<0.021222] yes=3,no=4,missing=3
		3:[f4133<0.0484965] yes=7,no=8,missing=7
			7:[f21217<0.0473119] yes=13,no=14,missing=14
				13:leaf=0.0397038
				14:leaf=0.133298
			8:leaf=0.0348508
		4:leaf=0.000110497
	2:[f8032<0.0270298] yes=5,no=6,missing=5
		5:[f8042<0.59866] yes=9,no=10,missing=10
			9:[f1108<0.560997] yes=15,no=16,missing=16
				15:leaf=-0.0291774
				16:leaf=0.112539
			10:[f18922<0.0766895] yes=17,no=18,missing=17
				17:leaf=-0.0152396
				18:leaf=0.103769
		6:[f8347<0.175093] yes=11,no=12,missing=11
			11:[f4770<1.53617] yes=19,no=20,missing=20
				19:leaf=0.0025985
				20:leaf=0.116271
			12:[f8347<0.219061] yes=21,no=22,missing=22
				21:leaf=0.0177781
				22:leaf=-0.0339792
booster[28]:
0:[f465<0.171442] yes=1,no=2,missing=1
	1:[f14423<0.0960227] yes=3,no=4,missing=3
		3:[f2880<0.0433709] yes=5,no=6,missing=5
			5:[f4754<0.0963755] yes=9,no=10,missing=9
				9:leaf=-0.0331307
				10:leaf=0.0434666
			6:[f9113<0.0396096] yes=11,no=12,missing=11
				11:leaf=0.00335085
				12:leaf=0.106652
		4:leaf=0.0952527
	2:leaf=0.123742
booster[29]:
0:[f4891<0.0151359] yes=1,no=2,missing=1
	1:[f379<0.0088828] yes=3,no=4,missing=3
		3:[f5386<0.01462] yes=7,no=8,missing=7
			7:[f19123<0.079714] yes=13,no=14,missing=14
				13:leaf=-0.0366471
				14:leaf=0.0206359
			8:leaf=0.11708
		4:[f7371<0.0713416] yes=9,no=10,missing=9
			9:[f2272<0.482952] yes=15,no=16,missing=16
				15:leaf=0.017854
				16:leaf=-0.0372599
			10:leaf=0.0394502
	2:[f18155<0.125725] yes=5,no=6,missing=5
		5:[f11281<0.127539] yes=11,no=12,missing=12
			11:[f5092<0.160954] yes=17,no=18,missing=18
				17:leaf=0.0182583
				18:leaf=-0.0321158
			12:[f15393<0.0635625] yes=19,no=20,missing=19
				19:leaf=-0.0388419
				20:leaf=-0.00340961
		6:leaf=0.0368677
booster[30]:
0:[f19123<0.0140913] yes=1,no=2,missing=1
	1:[f12193<0.700861] yes=3,no=4,missing=4
		3:leaf=0.117148
		4:[f9455<1.71244] yes=7,no=8,missing=8
			7:leaf=0.0985774
			8:[f22922<0.0552244] yes=13,no=14,missing=13
				13:leaf=-0.0318315
				14:leaf=0.062493
	2:[f12273<0.30605] yes=5,no=6,missing=6
		5:[f12630<0.156441] yes=9,no=10,missing=10
			9:leaf=-0.0275035
			10:leaf=0.0167994
		6:[f8676<0.0373003] yes=11,no=12,missing=11
			11:[f4891<0.0280154] yes=15,no=16,missing=15
				15:leaf=0.124502
				16:leaf=0.0333798
			12:leaf=0.00126291
booster[31]:
0:[f19851<0.0477333] yes=1,no=2,missing=1
	1:[f11281<0.0563638] yes=3,no=4,missing=3
		3:[f20137<0.0507025] yes=7,no=8,missing=7
			7:[f7455<0.2601] yes=11,no=12,missing=11
				11:leaf=-0.0311597
				12:leaf=0.0767782
			8:leaf=0.0957841
		4:[f8988<0.275364] yes=9,no=10,missing=10
			9:[f4891<0.145128] yes=13,no=14,missing=13
				13:leaf=0.138025
				14:leaf=0.0157764
			10:leaf=-0.0302369
	2:[f8988<0.0227489] yes=5,no=6,missing=6
		5:leaf=0.0346436
		6:leaf=0.128142
booster[32]:
0:[f4891<0.0252646] yes=1,no=2,missing=1
	1:[f22736<0.354199] yes=3,no=4,missing=4
		3:[f23678<0.031074] yes=7,no=8,missing=7
			7:[f22736<0.0469172] yes=15,no=16,missing=16
				15:leaf=0.0536634
				16:leaf=0.134973
			8:leaf=0.0298106
		4:[f9930<0.016685] yes=9,no=10,missing=9
			9:[f298<0.0567966] yes=17,no=18,missing=17
				17:leaf=0.0019315
				18:leaf=0.102562
			10:[f7072<0.21539] yes=19,no=20,missing=20
				19:leaf=-0.00629664
				20:leaf=0.105619
	2:[f1454<0.0457025] yes=5,no=6,missing=5
		5:[f20530<0.276266] yes=11,no=12,missing=11
			11:leaf=-0.0396473
			12:leaf=-0.00415908
		6:[f4891<0.164183] yes=13,no=14,missing=14
			13:leaf=0.0411846
			14:leaf=-0.031221
booster[33]:
0:[f18804<0.0100146] yes=1,no=2,missing=1
	1:[f8347<0.219061] yes=3,no=4,missing=3
		3:[f8817<0.038944] yes=7,no=8,missing=7
			7:[f4891<0.0495132] yes=15,no=16,missing=15
				15:leaf=-0.0128219
				16:leaf=-0.0378257
			8:[f8988<0.0111148] yes=17,no=18,missing=17
				17:leaf=0.0132143
				18:leaf=0.105569
		4:[f8032<0.0253323] yes=9,no=10,missing=9
			9:leaf=0.145263
			10:leaf=0.0450943
	2:[f3803<0.0131789] yes=5,no=6,missing=5
		5:[f1358<0.0249443] yes=11,no=12,missing=11
			11:[f8817<0.108398] yes=19,no=20,missing=20
				19:leaf=0.0383182
				20:leaf=-0.025669
			12:[f8307<0.338454] yes=21,no=22,missing=22
				21:leaf=-0.00649694
				22:leaf=0.0894557
		6:[f21350<0.0197288] yes=13,no=14,missing=13
			13:[f11928<0.0296176] yes=23,no=24,missing=24
				23:leaf=0.0414705
				24:leaf=0.128597
			14:leaf=-0.00697003
booster[34]:
0:[f4891<0.0691866] yes=1,no=2,missing=1
	1:[f1781<0.0446567] yes=3,no=4,missing=3
		3:[f17478<0.0477399] yes=7,no=8,missing=7
			7:leaf=-0.0400168
			8:leaf=0.0177744
		4:leaf=0.0693793
	2:[f3914<0.214112] yes=5,no=6,missing=5
		5:[f8323<0.105321] yes=9,no=10,missing=9
			9:[f17931<0.0786087] yes=13,no=14,missing=13
				13:leaf=0.121593
				14:leaf=-0.00729339
			10:leaf=-0.0114739
		6:[f21563<0.080329] yes=11,no=12,missing=11
			11:leaf=-0.034927
			12:leaf=-0.00456834
booster[35]:
0:[f465<0.171442] yes=1,no=2,missing=1
	1:[f12731<0.0340923] yes=3,no=4,missing=3
		3:[f22792<0.179595] yes=7,no=8,missing=7
			7:[f15100<0.0356232] yes=11,no=12,missing=11
				11:leaf=-0.0330666
				12:leaf=0.0638314
			8:leaf=0.0736987
		4:[f173<0.397944] yes=9,no=10,missing=10
			9:leaf=-0.0322779
			10:[f21702<0.122045] yes=13,no=14,missing=14
				13:leaf=-0.00621268
				14:leaf=0.0783604
	2:[f8032<0.0293672] yes=5,no=6,missing=6
		5:leaf=0.0359435
		6:leaf=0.11564
booster[36]:
0:[f4891<0.0151359] yes=1,no=2,missing=1
	1:[f8676<0.00649367] yes=3,no=4,missing=3
		3:[f7469<0.725545] yes=7,no=8,missing=8
			7:[f13530<0.104611] yes=13,no=14,missing=14
				13:leaf=-0.00472168
				14:leaf=-0.0356772
			8:[f23720<0.0115112] yes=15,no=16,missing=15
				15:leaf=0.0488568
				16:leaf=-0.0264569
		4:[f8701<0.0494015] yes=9,no=10,missing=9
			9:[f6755<0.0240639] yes=17,no=18,missing=17
				17:leaf=-0.0298258
				18:leaf=0.0353906
			10:leaf=0.0507964
	2:[f18155<0.125725] yes=5,no=6,missing=5
		5:[f11928<0.0248977] yes=11,no=12,missing=12
			11:[f4891<0.0983295] yes=19,no=20,missing=20
				19:leaf=0.0180343
				20:leaf=-0.0321283
			12:[f21435<0.108752] yes=21,no=22,missing=21
				21:leaf=-0.0386052
				22:leaf=-0.00421912
		6:leaf=0.0410055
booster[37]:
0:[f19123<0.0148939] yes=1,no=2,missing=1
	1:[f12193<0.77563] yes=3,no=4,missing=4
		3:leaf=0.107196
		4:[f19310<0.0309332] yes=7,no=8,missing=7
			7:[f10441<0.340078] yes=11,no=12,missing=11
				11:leaf=-0.0328944
				12:leaf=0.0420414
			8:leaf=0.0901614
	2:[f18804<0.0133563] yes=5,no=6,missing=5
		5:[f4891<0.0280154] yes=9,no=10,missing=9
			9:[f8988<0.0143068] yes=13,no=14,missing=13
				13:leaf=0.111393
				14:leaf=0.0355661
			10:leaf=-0.0108449
		6:leaf=-0.0300676
booster[38]:
0:[f4770<0.0392791] yes=1,no=2,missing=1
	1:[f13711<0.128044] yes=3,no=4,missing=3
		3:[f10445<0.174675] yes=7,no=8,missing=7
			7:[f14749<0.0882671] yes=11,no=12,missing=12
				11:leaf=0.0859443
				12:leaf=-0.0328742
			8:[f4092<0.0497747] yes=13,no=14,missing=13
				13:leaf=0.123096
				14:leaf=-0.0289424
		4:leaf=0.0976045
	2:[f3721<0.172557] yes=5,no=6,missing=6
		5:leaf=-0.00591409
		6:[f21865<0.331042] yes=9,no=10,missing=10
			9:leaf=0.0345375
			10:leaf=0.112172
booster[39]:
0:[f4891<0.0251022] yes=1,no=2,missing=1
	1:[f22736<0.0140643] yes=3,no=4,missing=3
		3:[f21865<0.0281511] yes=7,no=8,missing=7
			7:[f16884<0.0813045] yes=13,no=14,missing=13
				13:leaf=0.000594315
				14:leaf=0.0851595
			8:[f18641<0.072166] yes=15,no=16,missing=16
				15:leaf=-0.0297034
				16:leaf=0.107101
		4:[f18845<0.0261804] yes=9,no=10,missing=9
			9:leaf=0.118864
			10:leaf=0.0370248
	2:[f12753<0.0638749] yes=5,no=6,missing=5
		5:[f6763<0.0590218] yes=11,no=12,missing=11
			11:[f2236<0.0767718] yes=17,no=18,missing=17
				17:leaf=-0.0393881
				18:leaf=-0.00358378
			12:leaf=-0.00332779
		6:leaf=0.00926065
booster[40]:
0:[f12273<0.0377602] yes=1,no=2,missing=1
	1:[f8347<0.224859] yes=3,no=4,missing=3
		3:[f4891<0.0571679] yes=7,no=8,missing=7
			7:[f8676<0.0299052] yes=13,no=14,missing=13
				13:leaf=-0.015085
				14:leaf=0.0306241
			8:[f13474<0.0821919] yes=15,no=16,missing=15
				15:leaf=-0.0374554
				16:leaf=-0.00301134
		4:[f8988<0.0135184] yes=9,no=10,missing=9
			9:leaf=0.129235
			10:leaf=0.041716
	2:[f23998<0.0155982] yes=5,no=6,missing=5
		5:[f23542<0.0393865] yes=11,no=12,missing=11
			11:[f21350<0.02658] yes=17,no=18,missing=17
				17:leaf=0.107149
				18:leaf=0.00932374
			12:leaf=-0.00568329
		6:leaf=-0.0301242
booster[41]:
0:[f4891<0.0691866] yes=1,no=2,missing=1
	1:[f4891<0.0257381] yes=3,no=4,missing=3
		3:[f3746<0.0166032] yes=7,no=8,missing=7
			7:leaf=-0.0397992
			8:leaf=-0.00354383
		4:[f11928<0.0844189] yes=9,no=10,missing=10
			9:leaf=0.0344102
			10:[f10967<0.53482] yes=15,no=16,missing=16
				15:leaf=-0.0283514
				16:leaf=0.000877741
	2:[f21435<0.0690604] yes=5,no=6,missing=5
		5:[f8323<0.105321] yes=11,no=12,missing=11
			11:[f9698<0.043275] yes=17,no=18,missing=17
				17:leaf=0.106881
				18:leaf=0.00397657
			12:leaf=-0.0299475
		6:[f20530<0.0573338] yes=13,no=14,missing=13
			13:leaf=-0.0299098
			14:leaf=0.0169677
booster[42]:
0:[f23720<0.0970544] yes=1,no=2,missing=1
	1:[f465<0.2069] yes=3,no=4,missing=3
		3:[f14423<0.109115] yes=7,no=8,missing=7
			7:[f22792<0.210813] yes=11,no=12,missing=11
				11:leaf=-0.0371088
				12:leaf=0.0599902
			8:leaf=0.0647442
		4:leaf=0.0899962
	2:[f1781<0.0969958] yes=5,no=6,missing=5
		5:[f3935<0.0389162] yes=9,no=10,missing=9
			9:[f2272<0.129803] yes=13,no=14,missing=14
				13:leaf=0.0339933
				14:leaf=0.109552
			10:leaf=0.0210991
		6:leaf=-0.0318065
booster[43]:
0:[f4891<0.0151359] yes=1,no=2,missing=1
	1:[f379<0.0102797] yes=3,no=4,missing=3
		3:[f7469<0.760394] yes=7,no=8,missing=8
			7:[f1454<0.0398322] yes=15,no=16,missing=16
				15:leaf=-0.00366642
				16:leaf=-0.037244
			8:[f8676<0.040412] yes=17,no=18,missing=17
				17:leaf=0.0437925
				18:leaf=-0.0179237
		4:[f16358<0.0437039] yes=9,no=10,missing=9
			9:[f21798<0.0346669] yes=19,no=20,missing=19
				19:leaf=-0.0368714
				20:leaf=-0.00196555
			10:leaf=0.0185041
	2:[f11151<0.0469501] yes=5,no=6,missing=5
		5:[f8647<0.0603322] yes=11,no=12,missing=12
			11:leaf=-0.00364058
			12:leaf=-0.0391653
		6:[f4891<0.218679] yes=13,no=14,missing=14
			13:leaf=0.0620424
			14:leaf=-0.0277671
booster[44]:
0:[f1566<0.0298604] yes=1,no=2,missing=1
	1:[f6995<1.27613] yes=3,no=4,missing=4
		3:leaf=0.118693
		4:[f12193<1.20713] yes=7,no=8,missing=8
			7:leaf=0.10069
			8:[f19310<0.0309332] yes=9,no=10,missing=9
				9:leaf=-0.028477
				10:leaf=0.0614879
	2:[f4891<0.0601769] yes=5,no=6,missing=5
		5:leaf=0.111597
		6:leaf=-0.0287602
booster[45]:
0:[f19795<0.842025] yes=1,no=2,missing=2
	1:leaf=0.106657
	2:[f18856<0.0410058] yes=3,no=4,missing=3
		3:[f13351<0.0600902] yes=5,no=6,missing=5
			5:[f159<0.0348032] yes=9,no=10,missing=9
				9:leaf=-0.0301517
				10:leaf=0.0757445
			6:leaf=0.0786603
		4:[f8676<0.0462453] yes=7,no=8,missing=8
			7:[f8988<0.0110282] yes=11,no=12,missing=11
				11:leaf=0.0155969
				12:leaf=0.101421
			8:leaf=-0.022996
booster[46]:
0:[f8676<0.0334516] yes=1,no=2,missing=1
	1:[f10698<0.0820072] yes=3,no=4,missing=4
		3:[f3803<0.0413176] yes=7,no=8,missing=7
			7:[f10698<0.0406657] yes=13,no=14,missing=14
				13:leaf=0.0108858
				14:leaf=0.115849
			8:leaf=-0.019038
		4:[f10556<0.0431334] yes=9,no=10,missing=9
			9:[f16884<0.108746] yes=17,no=18,missing=17
				17:leaf=-0.0243572
				18:leaf=0.0439244
			10:leaf=0.0782392
	2:[f8347<0.698884] yes=5,no=6,missing=6
		5:leaf=-0.0369019
		6:[f379<0.0151758] yes=11,no=12,missing=11
			11:[f8988<0.373488] yes=19,no=20,missing=20
				19:leaf=-0.0170347
				20:leaf=0.0494609
			12:[f9023<0.0726173] yes=21,no=22,missing=22
				21:leaf=-0.016366
				22:leaf=0.101233
booster[47]:
0:[f379<0.0379396] yes=1,no=2,missing=1
	1:[f4891<0.0561235] yes=3,no=4,missing=3
		3:[f10263<0.0333071] yes=7,no=8,missing=7
			7:[f8817<0.171131] yes=15,no=16,missing=16
				15:leaf=0.0697933
				16:leaf=-0.0132299
			8:[f8676<0.112942] yes=17,no=18,missing=18
				17:leaf=0.0393758
				18:leaf=0.109077
		4:[f15447<0.0619159] yes=9,no=10,missing=9
			9:leaf=-0.0388801
			10:leaf=-0.00309896
	2:[f4891<0.098973] yes=5,no=6,missing=5
		5:[f8817<0.0224611] yes=11,no=12,missing=11
			11:[f10263<0.0304097] yes=19,no=20,missing=19
				19:leaf=0.0248068
				20:leaf=0.0877886
			12:[f5785<0.0664869] yes=21,no=22,missing=21
				21:leaf=0.103963
				22:leaf=0.0271036
		6:leaf=-0.0242757
booster[48]:
0:[f4891<0.0344621] yes=1,no=2,missing=1
	1:[f6428<0.0531633] yes=3,no=4,missing=4
		3:leaf=0.0176208
		4:[f7924<0.0488332] yes=7,no=8,missing=7
			7:leaf=-0.0396
			8:leaf=-0.00369851
	2:[f3914<0.193222] yes=5,no=6,missing=5
		5:[f4891<0.112731] yes=9,no=10,missing=10
			9:[f1781<0.0446567] yes=13,no=14,missing=13
				13:leaf=0.0208438
				14:leaf=0.09572
			10:[f9698<0.0438115] yes=15,no=16,missing=15
				15:leaf=0.102084
				16:leaf=-0.0114382
		6:[f4891<0.318232] yes=11,no=12,missing=12
			11:leaf=-0.0359815
			12:leaf=0.0161394
booster[49]:
0:[f23720<0.0744162] yes=1,no=2,missing=1
	1:[f465<0.133816] yes=3,no=4,missing=3
		3:[f22792<0.165885] yes=7,no=8,missing=7
			7:[f14423<0.122656] yes=13,no=14,missing=13
				13:leaf=-0.036727
				14:leaf=0.035746
			8:leaf=0.0615907
		4:[f4891<0.248032] yes=9,no=10,missing=9
			9:leaf=0.0931233
			10:leaf=0.0326574
	2:[f21702<0.0886704] yes=5,no=6,missing=6
		5:leaf=-0.0308967
		6:[f21350<0.0479822] yes=11,no=12,missing=11
			11:[f9008<0.0188332] yes=15,no=16,missing=16
				15:leaf=0.0156619
				16:leaf=0.0952825
			12:leaf=-0.0114136
booster[50]:
0:[f4891<0.0151359] yes=1,no=2,missing=1
	1:[f20044<0.0209699] yes=3,no=4,missing=3
		3:[f7469<0.95114] yes=7,no=8,missing=8
			7:[f1511<0.0246458] yes=13,no=14,missing=13
				13:leaf=-0.0371975
				14:leaf=-0.00363834
			8:[f23542<0.928547] yes=15,no=16,missing=16
				15:leaf=-0.0351362
				16:leaf=0.0300865
		4:[f11928<0.0282053] yes=9,no=10,missing=10
			9:leaf=0.0172439
			10:leaf=-0.0384622
	2:[f20657<0.0403398] yes=5,no=6,missing=5
		5:[f8514<0.0475172] yes=11,no=12,missing=11
			11:[f2236<0.0678449] yes=17,no=18,missing=17
				17:leaf=-0.0381178
				18:leaf=-0.00306495
			12:leaf=-0.00304475
		6:leaf=0.0190276
booster[51]:
0:[f7469<0.0122613] yes=1,no=2,missing=1
	1:[f21654<0.514791] yes=3,no=4,missing=4
		3:[f13527<0.0880664] yes=7,no=8,missing=8
			7:leaf=0.0304207
			8:leaf=0.089681
		4:[f6995<1.00543] yes=9,no=10,missing=10
			9:leaf=0.108238
			10:[f19310<0.124264] yes=13,no=14,missing=13
				13:leaf=-0.0335664
				14:leaf=0.0736201
	2:[f4891<0.0239483] yes=5,no=6,missing=5
		5:[f9930<0.503375] yes=11,no=12,missing=12
			11:leaf=0.0132783
			12:[f298<0.0195547] yes=15,no=16,missing=15
				15:leaf=0.109317
				16:leaf=0.0386532
		6:leaf=-0.0335505
booster[52]:
0:[f4770<0.0905502] yes=1,no=2,missing=1
	1:[f7455<0.238328] yes=3,no=4,missing=3
		3:[f10297<0.0401523] yes=5,no=6,missing=5
			5:[f13351<0.386265] yes=9,no=10,missing=9
				9:leaf=-0.030096
				10:leaf=0.0838188
			6:leaf=0.100281
		4:[f13258<0.534347] yes=7,no=8,missing=8
			7:leaf=0.0172276
			8:leaf=0.10342
	2:leaf=0.0946387
booster[53]:
0:[f13178<0.0113613] yes=1,no=2,missing=1
	1:[f10698<0.0317603] yes=3,no=4,missing=3
		3:[f16884<0.0890422] yes=7,no=8,missing=7
			7:[f1701<0.0806149] yes=15,no=16,missing=15
				15:leaf=-0.0216563
				16:leaf=0.108699
			8:[f8550<0.438123] yes=17,no=18,missing=18
				17:leaf=0.0233989
				18:leaf=0.0687379
		4:[f12062<1.02999] yes=9,no=10,missing=10
			9:leaf=-0.0283705
			10:leaf=0.100293
	2:[f2019<0.323709] yes=5,no=6,missing=6
		5:[f12273<0.0427525] yes=11,no=12,missing=12
			11:leaf=0.059904
			12:leaf=-0.0353164
		6:[f7455<0.0261915] yes=13,no=14,missing=13
			13:[f12063<0.0688621] yes=19,no=20,missing=20
				19:leaf=-0.0073236
				20:leaf=0.0899035
			14:[f9233<0.0209672] yes=21,no=22,missing=21
				21:leaf=-0.0318226
				22:leaf=0.0345105
booster[54]:
0:[f379<0.0391223] yes=1,no=2,missing=1
	1:[f4891<0.0561235] yes=3,no=4,missing=3
		3:[f20044<0.0221781] yes=7,no=8,missing=7
			7:[f12586<0.270283] yes=15,no=16,missing=15
				15:leaf=-0.0162254
				16:leaf=0.0886686
			8:[f1358<0.0120782] yes=17,no=18,missing=17
				17:leaf=0.0105351
				18:leaf=0.086378
		4:[f7074<0.0944926] yes=9,no=10,missing=10
			9:leaf=-0.0032894
			10:[f19254<0.0486404] yes=19,no=20,missing=19
				19:leaf=-0.0386037
				20:leaf=-0.00342429
	2:[f4891<0.0653889] yes=5,no=6,missing=5
		5:[f21233<0.0136088] yes=11,no=12,missing=11
			11:[f1441<0.0391827] yes=21,no=22,missing=21
				21:leaf=0.0790669
				22:leaf=-0.0184628
			12:leaf=-0.032377
		6:[f3935<0.0926145] yes=13,no=14,missing=13
			13:leaf=-0.0326475
			14:leaf=-0.00313205
booster[55]:
0:[f1781<0.0226949] yes=1,no=2,missing=1
	1:[f3935<0.0349058] yes=3,no=4,missing=3
		3:[f8032<0.027505] yes=7,no=8,missing=7
			7:[f19932<0.0996239] yes=13,no=14,missing=13
				13:leaf=-0.0202693
				14:leaf=0.0831412
			8:[f8347<0.0909414] yes=15,no=16,missing=15
				15:leaf=0.0633638
				16:leaf=-0.0173681
		4:[f23179<0.0329627] yes=9,no=10,missing=9
			9:[f21350<0.0677563] yes=17,no=18,missing=18
				17:leaf=0.0174035
				18:leaf=0.0851994
			10:leaf=-0.00805785
	2:[f18804<0.0550512] yes=5,no=6,missing=6
		5:leaf=0.00783194
		6:[f11411<0.205377] yes=11,no=12,missing=12
			11:leaf=0.0113876
			12:[f8347<0.128248] yes=19,no=20,missing=19
				19:leaf=0.093178
				20:leaf=0.0294244
